{"check_sum": "-1.2432696", "scaling_parameters": [[0.25100457668304443, 0.00048820473602972925, 1.0017427206039429, 0.001299822237342596, 0.000355255207978189, 0.2441805750131607, 0.8552021980285645, 0.0015005534514784813, 0.0014893540646880865, -0.012287959456443787, 0.025468142703175545, 0.0004977136850357056, 0.1349658966064453, -0.0010669315233826637, -0.00020099006360396743, -0.0017435753252357244, 0.26322758197784424, 0.27034541964530945, 0.31180539727211, 0.22466294467449188, 0.25101953744888306, 0.0005040343385189772, 1.0016095638275146, 0.0013491185382008553, 0.00034150993451476097, 0.24475020170211792, 0.8555044531822205, 0.0015199561603367329, 0.0016189808957278728, -0.013642225414514542, 0.025864524766802788, 0.0013408776139840484, 0.13452604413032532, -0.0010759762953966856, -0.00021553404803853482, -0.0016105581307783723, 0.26276642084121704, 0.2700735032558441, 0.3119734823703766, 0.22459673881530762], [0.17800940573215485, 0.17837129533290863, 0.02801196090877056, 0.09040910750627518, 0.09058652073144913, 0.42903995513916016, 0.1897566318511963, 0.40978536009788513, 0.4082375764846802, 0.13644784688949585, 1.8388375043869019, 1.8247830867767334, 1.7258621454238892, 0.04580199718475342, 0.045636165887117386, 0.028011983260512352, 1.0056930780410767, 0.9981882572174072, 1.1228758096694946, 0.9456843137741089, 0.17812500894069672, 0.17848815023899078, 0.02857097052037716, 0.09194067865610123, 0.09213321655988693, 0.42774897813796997, 0.18974341452121735, 0.4127848148345947, 0.4110663831233978, 0.14427803456783295, 1.864484429359436, 1.85209321975708, 1.7288968563079834, 0.04630758985877037, 0.04613162949681282, 0.028570955619215965, 1.0039987564086914, 0.9976062178611755, 1.121947169303894, 0.9450646638870239]], "activation": "relu", "0": {"type": "standard", "weights": [[-0.046066705137491226, -0.13889838755130768, 0.008245845325291157, 0.036324501037597656, 0.17993178963661194, -0.431075781583786, 0.10108441114425659, 0.042061299085617065, -0.39336609840393066, 0.3096762001514435, -0.48757204413414, -0.4278513491153717, -0.024171652272343636, 0.06882455199956894, -0.07244642823934555, -0.02650456503033638, -0.03341151401400566, 0.026188494637608528, 0.025438928976655006, -0.022077636793255806, -0.263991117477417, 0.042619846761226654, 0.09739129990339279, 0.24459271132946014, -0.03053910844027996, -0.44023916125297546, 0.19913813471794128, -0.1469448357820511, -0.09728273004293442, 0.30310261249542236, 0.4122213125228882, 0.7658986449241638, -0.024347107857465744, -0.09775879234075546, 0.18672782182693481, 0.002562516601756215, 0.05930117145180702, 0.10020887851715088, 0.013086549006402493, -0.0657864585518837], [0.20528608560562134, -0.08199086785316467, -0.004995730705559254, 0.12087593972682953, -0.03413228690624237, 0.3387514352798462, 0.24689796566963196, 0.22838573157787323, 0.22933770716190338, 0.2576841711997986, 0.37215471267700195, -0.6287246942520142, -0.11373218148946762, 0.12227720767259598, -0.13443481922149658, 0.06808027625083923, 0.058088503777980804, 0.0361793152987957, 0.13194911181926727, 0.09264791756868362, 0.16129139065742493, -0.06395820528268814, 0.28759628534317017, -0.20922179520130157, 0.44101715087890625, 0.150755375623703, 0.34947267174720764, 0.060850754380226135, 0.13007637858390808, 0.4295048117637634, 0.0641275942325592, 0.9114910364151001, -0.10352759063243866, -0.011178486049175262, -0.0455365888774395, 0.0068667796440422535, -0.04618636891245842, -0.03968014568090439, 0.13895878195762634, 0.06525284796953201], [0.15973295271396637, -0.38182929158210754, -0.04729064553976059, -0.0973922461271286, 0.030161336064338684, 0.548048734664917, 0.16634385287761688, 0.18202105164527893, -0.15874101221561432, 0.23480603098869324, -0.5852299332618713, 0.05153575912117958, -0.017472879961133003, -0.10674071311950684, 0.039921458810567856, -0.1565442979335785, 0.00914453063160181, 0.09351126849651337, 0.021867791190743446, 0.09700743108987808, -0.012268178164958954, -0.25391337275505066, -0.0033442669082432985, 0.4067723751068115, 0.4401102066040039, 0.3855481743812561, 0.2513512372970581, 0.5712525844573975, 0.024654602631926537, 0.2854558229446411, 0.9739709496498108, -0.019626574590802193, 0.047588735818862915, -0.045736245810985565, -0.15589840710163116, -0.04075082018971443, -0.02711288258433342, -0.1502552628517151, 0.052990276366472244, 0.07174572348594666], [-0.13451366126537323, -0.009644381701946259, -0.0603339709341526, 0.26707008481025696, 0.27082616090774536, -0.0756586492061615, 0.13021308183670044, -0.2797635495662689, 0.05894823744893074, 0.34586095809936523, 0.41973599791526794, 0.8890269994735718, 0.008886776864528656, 0.14366774260997772, 0.038477424532175064, 0.05353596433997154, 0.0012785326689481735, 0.08474817872047424, 0.1706966608762741, 0.14131900668144226, 0.02880880981683731, 0.1413632035255432, 0.16416379809379578, -0.22844229638576508, -0.48455488681793213, -0.019074097275733948, -0.008910393342375755, 0.03923793137073517, -0.10085317492485046, 0.4498588442802429, -0.2796693742275238, -0.8912400603294373, -0.00668242946267128, 0.0029318896122276783, 0.010644892230629921, -0.172224223613739, 0.020983269438147545, -0.05010475218296051, 0.04399640113115311, 0.058829255402088165], [0.027098702266812325, 0.25904542207717896, 0.05702288821339607, -0.02772488072514534, -0.32556572556495667, 0.2661582827568054, -0.0803740918636322, -0.09183401614427567, 0.2083050161600113, 0.008321053348481655, 0.3268466889858246, -0.3774208724498749, 0.3757286071777344, 0.07799598574638367, -0.10051129758358002, -0.03826940432190895, 0.012012990191578865, 0.035349417477846146, 0.09595879912376404, 0.08599190413951874, 0.09794183075428009, 0.1841925084590912, -0.03327355161309242, -0.10590509325265884, 0.09135017544031143, 0.42683693766593933, -0.13738614320755005, -0.2338632196187973, 0.13380219042301178, 0.18675129115581512, -0.08609132468700409, 0.5773281455039978, 0.266824871301651, 0.1354580968618393, 0.13302598893642426, -0.11053282022476196, -0.12931948900222778, -0.0038780116010457277, 0.05084925517439842, 0.1654248684644699], [-0.012490235269069672, 0.0018453741213306785, -0.11307550966739655, -0.18513549864292145, 0.0806514099240303, 0.09920230507850647, -0.10079775750637054, -0.0613858588039875, -0.32364362478256226, -0.029215581715106964, -0.8234884738922119, 0.31644031405448914, -0.09443240612745285, 0.08521587401628494, 0.14337892830371857, 0.08067239075899124, 0.03797166422009468, -0.0036668393295258284, 0.04157941788434982, -0.05539849027991295, -0.09244560450315475, 0.1964206099510193, 0.12140123546123505, 0.39009085297584534, -0.2433910369873047, -0.11320799589157104, 0.14877592027187347, -0.24182885885238647, 0.3015550971031189, 0.05656617134809494, 1.0882465839385986, -0.30964940786361694, 0.10304578393697739, -0.01531671267002821, -0.08439464122056961, -0.12661367654800415, -0.024999519810080528, 0.04873355105519295, 0.07388805598020554, 0.09196454286575317]], "biases": [0.4237974286079407, 0.4442481994628906, 0.5472309589385986, 0.6292319297790527, 0.16085995733737946, 1.2087454795837402]}, "1": {"type": "standard", "weights": [[0.7581665515899658, 0.07268008589744568, 1.2021945714950562, -0.970084547996521, -0.4344475567340851, 1.1652768850326538], [-0.5533890724182129, -1.608595371246338, 0.5406724214553833, -0.20733647048473358, -0.3890132009983063, 0.6051528453826904], [-0.19402796030044556, 0.37730810046195984, -0.4858875274658203, 0.22680266201496124, -0.43214213848114014, 0.6688869595527649], [-0.17006216943264008, -0.24485167860984802, -0.5011870265007019, 0.34832021594047546, -0.3657124638557434, 0.8986452221870422], [0.5504580736160278, 0.4281056225299835, 0.14528803527355194, -1.574129581451416, 0.42557281255722046, 0.2397194653749466], [0.04838148131966591, 0.40599092841148376, -0.32564687728881836, -0.5982995629310608, -0.6471579670906067, -0.10949239134788513]], "biases": [-0.8015525341033936, 1.091874122619629, -0.11920008063316345, -0.28354793787002563, 0.6621530652046204, 1.524766445159912]}, "2": {"type": "standard", "weights": [[0.9734100699424744, -0.1844901144504547, -1.428863286972046, 0.007419423665851355, 1.7153947353363037, -0.5547530055046082], [0.5835188627243042, 1.607250690460205, 1.1307322978973389, 1.2497806549072266, -0.4526812434196472, 0.17999859154224396], [-1.8919423818588257, 2.0584864616394043, 0.7771750688552856, -0.07121598720550537, -0.007619777228683233, 0.15199565887451172], [-1.1513696908950806, -0.6075836420059204, -0.18012692034244537, -1.081749677658081, 1.088117241859436, 2.235710620880127]], "biases": [-1.173092246055603, -1.724861979484558, 1.1427737474441528, 0.2392118126153946]}}